1. Decision tree on the normal data:

0: 462
1: 538

Tree on Original Dataset:

v1 = 0
|   v4 = 0
|   |   v2 = 0: 0 (141.0/32.0)
|   |   v2 = 1: 1 (117.0/29.0)
|   v4 = 1: 1 (232.0/43.0)
v1 = 1
|   v3 = 0: 0 (251.0/78.0)
|   v3 = 1: 1 (259.0/108.0)

=== Confusion Matrix ===

   a   b   <-- classified as
 282 180 |   a = 0
 110 428 |   b = 1

Correctly Classified Instances         710               71      %
Incorrectly Classified Instances       290               29      %
Kappa statistic                          0.4103
Mean absolute error                      0.3966
Root mean squared error                  0.4453
Relative absolute error                 79.7823 %
Root relative squared error             89.3214 %
Total Number of Instances             1000     

 Detailed Accuracy By Class ===

                 TP Rate  FP Rate  Precision  Recall   F-Measure  MCC      ROC Area  PRC Area  Class
                 0.610    0.204    0.719      0.610    0.660      0.415    0.751     0.669     0
                 0.796    0.390    0.704      0.796    0.747      0.415    0.751     0.731     1
Weighted Avg.    0.710    0.304    0.711      0.710    0.707      0.415    0.751     0.702     

2. Create a noisy data set:

created.
0: 533
1: 467

Tree on the noisy dataset:

J48 pruned tree
------------------

J48 pruned tree
------------------

v3 = 0
|   v1 = 0
|   |   v4 = 0
|   |   |   v2 = 0: 0 (67.0/12.0)
|   |   |   v2 = 1: 1 (60.0/23.0)
|   |   v4 = 1: 1 (106.0/39.0)
|   v1 = 1: 0 (251.0/66.0)
v3 = 1
|   v4 = 0
|   |   v2 = 0
|   |   |   v1 = 0: 0 (74.0/14.0)
|   |   |   v1 = 1: 1 (75.0/35.0)
|   |   v2 = 1: 1 (124.0/45.0)
|   v4 = 1
|   |   v1 = 0: 1 (126.0/29.0)
|   |   v1 = 1: 0 (117.0/55.0)


Correctly Classified Instances         659               65.9    %
Incorrectly Classified Instances       341               34.1    %
Kappa statistic                          0.318 
Mean absolute error                      0.4246
Root mean squared error                  0.4646
Relative absolute error                 85.2828 %
Root relative squared error             93.1308 %
Total Number of Instances             1000     

=== Detailed Accuracy By Class ===

                 TP Rate  FP Rate  Precision  Recall   F-Measure  MCC      ROC Area  PRC Area  Class
                 0.649    0.330    0.692      0.649    0.670      0.319    0.693     0.700     0
                 0.670    0.351    0.626      0.670    0.647      0.319    0.693     0.631     1
Weighted Avg.    0.659    0.340    0.661      0.659    0.659      0.319    0.693     0.668     

=== Confusion Matrix ===

   a   b   <-- classified as
 346 187 |   a = 0
 154 313 |   b = 1
 
--------------------------------------------------------------------------------------------------------------------------------------------------------------------------------------------------------------------------------------
--------------------------------------------------------------------------------------------------------------------------------------------------------------------------------------------------------------------------------------

Logistic Regression on Original dataset: 
SimpleLogistic:

Class 0 :
0.16 + 
[v1=1] * 0.4  +
[v2=1] * -0.21 +
[v3=1] * -0.37 +
[v4=1] * -0.34

Class 1 :
-0.16 + 
[v1=1] * -0.4 +
[v2=1] * 0.21 +
[v3=1] * 0.37 +
[v4=1] * 0.34


Time taken to build model: 0.2 seconds

=== Stratified cross-validation ===
=== Summary ===

Correctly Classified Instances         632               63.2    %
Incorrectly Classified Instances       368               36.8    %
Kappa statistic                          0.2515
Mean absolute error                      0.4536
Root mean squared error                  0.4769
Relative absolute error                 91.255  %
Root relative squared error             95.6467 %
Total Number of Instances             1000     

=== Detailed Accuracy By Class ===

                 TP Rate  FP Rate  Precision  Recall   F-Measure  MCC      ROC Area  PRC Area  Class
                 0.524    0.275    0.621      0.524    0.568      0.254    0.665     0.597     0
                 0.725    0.476    0.639      0.725    0.679      0.254    0.665     0.689     1
Weighted Avg.    0.632    0.383    0.631      0.632    0.628      0.254    0.665     0.646     

=== Confusion Matrix ===

   a   b   <-- classified as
 242 220 |   a = 0
 148 390 |   b = 1


Logistic Regression on noisy data set:

Class 0 :
0.22 + 
[v1=1] * 0.32 +
[v3=1] * -0.35 +
[v4=1] * -0.27

Class 1 :
-0.22 + 
[v1=1] * -0.32 +
[v3=1] * 0.35 +
[v4=1] * 0.27


Time taken to build model: 0.08 seconds

=== Stratified cross-validation ===
=== Summary ===

Correctly Classified Instances         578               57.8    %
Incorrectly Classified Instances       422               42.2    %
Kappa statistic                          0.153 
Mean absolute error                      0.4723
Root mean squared error                  0.4888
Relative absolute error                 94.8719 %
Root relative squared error             97.9652 %
Total Number of Instances             1000     

=== Detailed Accuracy By Class ===

                 TP Rate  FP Rate  Precision  Recall   F-Measure  MCC      ROC Area  PRC Area  Class
                 0.598    0.445    0.605      0.598    0.602      0.153    0.606     0.621     0
                 0.555    0.402    0.548      0.555    0.551      0.153    0.606     0.576     1
Weighted Avg.    0.578    0.425    0.578      0.578    0.578      0.153    0.606     0.600     

=== Confusion Matrix ===

   a   b   <-- classified as
 319 214 |   a = 0
 208 259 |   b = 1

-----------------------------------------------------------------------------------------------------------------------------------------------------------------------------------------------------------------------------------
--------------------------------------------------------------------------------------------------------------------------------------------------------------------------------------------------------------------------------------
 


